{"gradients/actor.mu.weight":{"values":[2,0,1,3,3,2,1,4,2,9,13,7,12,22,18,17,36,37,44,50,55,65,68,109,131,155,177,176,299,152,128,149,135,116,126,100,100,68,94,71,57,45,42,32,33,18,24,10,10,8,5,8,5,2,5,2,2,3,0,0,0,0,1,3],"bins":[-0.10278405994176865,-0.09914299845695496,-0.09550193697214127,-0.09186087548732758,-0.08821980655193329,-0.0845787450671196,-0.08093768358230591,-0.07729662209749222,-0.07365556061267853,-0.07001449912786484,-0.06637343764305115,-0.06273237615823746,-0.05909131094813347,-0.05545024946331978,-0.05180918425321579,-0.0481681227684021,-0.04452706128358841,-0.04088599979877472,-0.03724493831396103,-0.03360387310385704,-0.02996281161904335,-0.02632175013422966,-0.02268068678677082,-0.01903962343931198,-0.015398561954498291,-0.011757499538362026,-0.008116437122225761,-0.004475374706089497,-0.0008343122899532318,0.002806750126183033,0.006447812542319298,0.010088874958455563,0.01372992992401123,0.01737099140882492,0.02101205475628376,0.0246531181037426,0.02829417958855629,0.03193524107336998,0.03557630628347397,0.03921736776828766,0.04285842925310135,0.04649949073791504,0.05014055222272873,0.05378161743283272,0.05742267891764641,0.0610637404024601,0.06470480561256409,0.06834586709737778,0.07198692858219147,0.07562799006700516,0.07926905155181885,0.08291011303663254,0.08655117452144623,0.09019224345684052,0.0938333049416542,0.0974743664264679,0.10111542791128159,0.10475648939609528,0.10839755088090897,0.11203861236572266,0.11567968130111694,0.11932074278593063,0.12296180427074432,0.12660285830497742,0.1302439272403717],"_type":"histogram"},"gradients/actor.latent_pi.0.bias":{"values":[1,0,0,0,0,0,0,0,0,4,0,0,1,0,1,1,1,0,2,2,1,2,6,6,4,7,7,13,9,7,11,10,14,6,7,14,13,8,10,6,9,6,15,3,2,4,7,5,3,8,1,2,0,3,2,2,4,1,1,1,1,1,0,1],"bins":[-0.06260454654693604,-0.0608648844063282,-0.05912522226572037,-0.057385560125112534,-0.0556458979845047,-0.053906235843896866,-0.05216657370328903,-0.0504269115626812,-0.048687249422073364,-0.04694758355617523,-0.0452079214155674,-0.043468259274959564,-0.04172859713435173,-0.039988934993743896,-0.03824927285313606,-0.03650961071252823,-0.034769948571920395,-0.03303028643131256,-0.03129062429070473,-0.029550962150096893,-0.02781130000948906,-0.026071636006236076,-0.024331973865628242,-0.02259231172502041,-0.020852649584412575,-0.01911298744380474,-0.017373325303196907,-0.015633663162589073,-0.013894000090658665,-0.01215433795005083,-0.010414674878120422,-0.008675012737512589,-0.006935350596904755,-0.005195688456296921,-0.0034560258500277996,-0.001716363476589322,2.3298896849155426e-05,0.001762961270287633,0.0035026236437261105,0.005242286249995232,0.0069819483906030655,0.0087216105312109,0.010461272671818733,0.012200935743749142,0.013940597884356976,0.015680260956287384,0.017419923096895218,0.019159585237503052,0.020899247378110886,0.02263890951871872,0.024378571659326553,0.026118233799934387,0.02785789594054222,0.029597559943795204,0.03133722022175789,0.03307688236236572,0.034816548228263855,0.03655621036887169,0.03829587250947952,0.04003553465008736,0.04177519679069519,0.043514858931303024,0.04525452107191086,0.04699418321251869,0.048733845353126526],"_type":"histogram"},"_wandb":{"runtime":125},"gradients/actor.latent_pi.2.bias":{"bins":[-0.050182491540908813,-0.0487823523581028,-0.04738221690058708,-0.04598207771778107,-0.04458193853497505,-0.043181803077459335,-0.04178166389465332,-0.040381524711847305,-0.03898138552904129,-0.037581250071525574,-0.03618111088871956,-0.034780971705913544,-0.03338083624839783,-0.03198069706559181,-0.030580559745430946,-0.02918042056262493,-0.027780283242464066,-0.0263801459223032,-0.024980006739497185,-0.02357986941933632,-0.022179730236530304,-0.020779592916369438,-0.019379455596208572,-0.017979316413402557,-0.01657917909324169,-0.015179040841758251,-0.01377890259027481,-0.012378765270113945,-0.010978627018630505,-0.009578488767147064,-0.008178351446986198,-0.006778213195502758,-0.005378074944019318,-0.003977936692535877,-0.002577798906713724,-0.0011776608880609274,0.00022247713059186935,0.001622615149244666,0.003022753167897463,0.004422890953719616,0.005823029205203056,0.007223167456686497,0.008623305708169937,0.010023443028330803,0.011423581279814243,0.012823719531297684,0.01422385685145855,0.01562399510294199,0.01702413335442543,0.018424270674586296,0.01982440985739231,0.021224547177553177,0.022624686360359192,0.024024823680520058,0.025424961000680923,0.02682510018348694,0.028225237503647804,0.02962537482380867,0.031025514006614685,0.0324256531894207,0.03382578864693642,0.03522592782974243,0.03662606701254845,0.03802620247006416,0.03942634165287018],"_type":"histogram","values":[1,0,1,0,0,0,0,0,0,0,0,3,0,0,1,1,2,2,0,1,2,2,3,9,4,5,8,6,8,9,4,10,11,11,8,19,11,9,11,9,12,5,8,11,3,6,6,4,4,1,4,4,3,5,0,1,2,0,3,0,0,1,1,1]},"gradients/critic.qf0.2.bias":{"bins":[-0.09167008846998215,-0.08806800842285156,-0.08446592837572098,-0.08086385577917099,-0.0772617757320404,-0.07365969568490982,-0.07005761563777924,-0.06645553559064865,-0.06285345554351807,-0.05925137922167778,-0.055649302899837494,-0.05204722285270691,-0.048445142805576324,-0.04484306648373604,-0.041240986436605453,-0.03763891011476517,-0.03403683006763458,-0.030434751883149147,-0.02683267369866371,-0.023230593651533127,-0.01962851546704769,-0.016026437282562256,-0.012424358166754246,-0.008822279050946236,-0.0052202008664608,-0.0016181222163140774,0.0019839564338326454,0.005586035083979368,0.009188113734126091,0.012790191918611526,0.01639227196574211,0.019994350150227547,0.023596420884132385,0.02719849906861782,0.030800577253103256,0.03440265730023384,0.03800473362207413,0.04160681366920471,0.0452088937163353,0.04881097003817558,0.05241305008530617,0.05601513013243675,0.05961720645427704,0.06321928650140762,0.06682136654853821,0.07042344659566879,0.07402551919221878,0.07762759923934937,0.08122967928647995,0.08483175933361053,0.08843383938074112,0.09203591197729111,0.09563799202442169,0.09924007207155228,0.10284215211868286,0.10644423216581345,0.11004631221294403,0.11364838480949402,0.1172504648566246,0.12085254490375519,0.12445462495088577,0.12805670499801636,0.13165877759456635,0.13526086509227753,0.13886293768882751],"_type":"histogram","values":[3,1,1,1,2,6,8,4,6,8,13,15,12,21,12,13,9,7,1,2,0,0,0,0,0,5,0,0,1,0,0,0,1,2,3,1,1,1,2,2,2,5,5,6,7,3,6,12,4,3,3,5,7,3,4,5,4,2,1,2,0,0,1,2]},"gradients/critic.qf1.0.weight":{"values":[1,0,0,1,0,0,1,0,0,2,1,5,4,6,1,4,8,19,8,24,42,35,51,60,55,70,66,85,104,187,326,522,719,962,5774,18968,1218,652,390,364,339,276,216,139,77,65,31,20,26,14,13,12,7,8,6,2,4,3,1,2,2,1,0,1],"bins":[-2.777881383895874,-2.6988110542297363,-2.6197404861450195,-2.540670156478882,-2.461599826812744,-2.3825294971466064,-2.3034591674804688,-2.224388599395752,-2.1453182697296143,-2.0662479400634766,-1.9871774911880493,-1.908107042312622,-1.8290367126464844,-1.7499663829803467,-1.6708959341049194,-1.5918254852294922,-1.5127551555633545,-1.4336848258972168,-1.3546143770217896,-1.2755439281463623,-1.1964735984802246,-1.117403268814087,-1.0383328199386597,-0.9592624306678772,-0.8801920413970947,-0.8011216521263123,-0.7220512628555298,-0.6429808735847473,-0.5639104843139648,-0.4848400950431824,-0.4057697057723999,-0.32669931650161743,-0.24762916564941406,-0.1685587763786316,-0.08948838710784912,-0.01041799783706665,0.06865239143371582,0.1477227807044983,0.22679316997528076,0.30586355924606323,0.3849339485168457,0.4640043377876282,0.5430747270584106,0.6221451163291931,0.7012155055999756,0.7802858948707581,0.8593562841415405,0.938426673412323,1.0174970626831055,1.0965673923492432,1.1756378412246704,1.2547082901000977,1.3337786197662354,1.412848949432373,1.4919193983078003,1.5709898471832275,1.6500601768493652,1.729130506515503,1.8082009553909302,1.8872714042663574,1.9663417339324951,2.045412063598633,2.1244826316833496,2.2035529613494873,2.282623291015625],"_type":"histogram"},"gradients/critic.qf0.4.bias":{"values":[1],"bins":[-0.4140625,-0.4140625],"_type":"histogram"},"gradients/critic.qf0.0.weight":{"_type":"histogram","values":[1,0,0,0,0,0,1,0,1,1,0,0,3,4,8,4,9,16,16,28,35,44,52,60,62,47,62,72,90,118,190,402,646,811,2172,22296,2021,544,352,364,400,333,245,144,102,70,48,38,13,20,9,7,10,4,4,4,3,2,0,4,4,2,0,2],"bins":[-2.2425425052642822,-2.17940616607666,-2.116270065307617,-2.053133726119995,-1.989997386932373,-1.9268611669540405,-1.863724946975708,-1.800588607788086,-1.7374523878097534,-1.674316167831421,-1.6111798286437988,-1.5480436086654663,-1.4849073886871338,-1.4217710494995117,-1.3586348295211792,-1.2954984903335571,-1.2323622703552246,-1.169226050376892,-1.10608971118927,-1.0429534912109375,-0.9798172116279602,-0.9166809320449829,-0.8535447120666504,-0.7904084324836731,-0.7272721529006958,-0.6641358733177185,-0.6009995937347412,-0.5378633737564087,-0.4747270941734314,-0.4115908145904541,-0.3484545648097992,-0.2853183150291443,-0.222182035446167,-0.1590457707643509,-0.09590950608253479,-0.03277324140071869,0.030363023281097412,0.09349928796291351,0.15663555264472961,0.21977181732654572,0.2829080820083618,0.3460443615913391,0.409180611371994,0.4723168611526489,0.5354531407356262,0.5985894203186035,0.661725640296936,0.7248619198799133,0.7879981994628906,0.8511344790458679,0.9142707586288452,0.9774069786071777,1.0405433177947998,1.1036795377731323,1.1668157577514648,1.229952096939087,1.2930883169174194,1.356224536895752,1.419360876083374,1.4824970960617065,1.545633316040039,1.6087696552276611,1.6719058752059937,1.7350422143936157,1.7981784343719482]},"gradients/critic.qf1.4.weight":{"bins":[-2.1082310676574707,-2.0752899646759033,-2.042348861694336,-2.0094077587127686,-1.9764666557312012,-1.9435255527496338,-1.9105844497680664,-1.877643346786499,-1.8447022438049316,-1.8117610216140747,-1.7788199186325073,-1.74587881565094,-1.7129377126693726,-1.6799966096878052,-1.6470555067062378,-1.6141144037246704,-1.581173300743103,-1.5482321977615356,-1.5152910947799683,-1.4823499917984009,-1.4494088888168335,-1.4164677858352661,-1.3835266828536987,-1.3505855798721313,-1.3176443576812744,-1.284703254699707,-1.2517621517181396,-1.2188210487365723,-1.1858799457550049,-1.1529388427734375,-1.1199977397918701,-1.0870566368103027,-1.0541155338287354,-1.021174430847168,-0.9882333278656006,-0.9552922248840332,-0.9223511219024658,-0.8894099593162537,-0.8564688563346863,-0.8235277533531189,-0.7905866503715515,-0.7576455473899841,-0.7247044444084167,-0.6917633414268494,-0.6588221788406372,-0.6258810758590698,-0.5929399728775024,-0.5599988698959351,-0.5270577669143677,-0.4941166639328003,-0.4611755609512329,-0.42823442816734314,-0.39529332518577576,-0.3623522222042084,-0.3294110894203186,-0.2964699864387512,-0.26352888345718384,-0.23058778047561646,-0.19764666259288788,-0.1647055447101593,-0.13176444172859192,-0.09882333129644394,-0.06588222086429596,-0.03294111043214798,0],"_type":"histogram","values":[2,0,1,2,0,0,1,0,0,1,1,2,1,1,0,2,0,0,0,1,0,1,1,3,3,2,3,5,4,6,8,14,9,10,15,11,5,2,5,4,2,2,1,1,2,0,2,3,2,5,4,6,7,8,9,13,10,12,11,11,8,6,1,4]},"gradients/actor.log_std.weight":{"values":[2,1,0,0,2,5,2,8,11,13,12,15,20,28,34,52,63,72,80,108,123,148,178,180,169,179,171,298,123,140,133,104,98,80,77,60,43,46,39,21,24,20,17,14,12,4,10,3,4,4,5,2,5,1,3,1,0,2,0,1,1,0,0,1],"bins":[-0.04506286233663559,-0.04344598203897476,-0.041829101741313934,-0.04021222144365311,-0.03859534114599228,-0.03697846457362175,-0.03536158427596092,-0.033744703978300095,-0.03212782368063927,-0.03051094338297844,-0.02889406308531761,-0.027277184650301933,-0.025660304352641106,-0.024043424054980278,-0.0224265456199646,-0.020809665322303772,-0.019192785024642944,-0.017575904726982117,-0.01595902442932129,-0.01434214599430561,-0.012725265696644783,-0.011108385398983955,-0.009491506032645702,-0.00787462666630745,-0.006257746368646622,-0.004640866536647081,-0.003023986704647541,-0.0014071068726480007,0.0002097729593515396,0.00182665279135108,0.0034435326233506203,0.005060412455350161,0.006677292287349701,0.008294172585010529,0.009911051951348782,0.011527931317687035,0.013144811615347862,0.01476169191300869,0.01637857034802437,0.017995450645685196,0.019612330943346024,0.02122921124100685,0.02284609153866768,0.024462969973683357,0.026079850271344185,0.027696730569005013,0.02931360900402069,0.03093048930168152,0.032547369599342346,0.034164249897003174,0.035781130194664,0.03739801049232483,0.03901489078998566,0.040631767362356186,0.042248647660017014,0.04386552795767784,0.04548240825533867,0.047099288552999496,0.048716168850660324,0.05033304914832115,0.05194992572069168,0.05356680601835251,0.055183686316013336,0.056800566613674164,0.05841744691133499],"_type":"histogram"},"_timestamp":1.7319376343422246e+09,"gradients/actor.latent_pi.0.weight":{"bins":[-0.16559937596321106,-0.1590716391801834,-0.15254391729831696,-0.1460161805152893,-0.13948845863342285,-0.1329607218503952,-0.12643298506736755,-0.1199052557349205,-0.11337752640247345,-0.1068497970700264,-0.10032206773757935,-0.0937943309545517,-0.08726660162210464,-0.08073887228965759,-0.07421113550662994,-0.06768340617418289,-0.06115567684173584,-0.05462794750928879,-0.04810021445155144,-0.04157248139381409,-0.035044752061367035,-0.028517020866274834,-0.021989289671182632,-0.015461558476090431,-0.00893382728099823,-0.0024060960859060287,0.0041216351091861725,0.010649366304278374,0.017177097499370575,0.023704828694462776,0.030232559889554977,0.03676029294729233,0.04328802227973938,0.04981575161218643,0.05634348466992378,0.06287121772766113,0.06939894706010818,0.07592667639255524,0.08245441317558289,0.08898214250802994,0.09550987184047699,0.10203760117292404,0.1085653305053711,0.11509306728839874,0.1216207966208458,0.12814852595329285,0.1346762627363205,0.14120398461818695,0.1477317214012146,0.15425945818424225,0.1607871800661087,0.16731491684913635,0.1738426387310028,0.18037037551403046,0.1868981122970581,0.19342583417892456,0.1999535709619522,0.20648130774497986,0.2130090296268463,0.21953676640987396,0.2260645031929016,0.23259222507476807,0.23911996185779572,0.24564768373966217,0.2521754205226898],"_type":"histogram","values":[3,0,1,3,6,2,8,3,15,13,26,19,40,39,37,79,81,93,138,168,223,310,424,992,4642,16344,2963,702,381,261,203,154,139,93,70,48,50,33,30,26,14,17,11,4,4,1,2,7,0,2,2,0,0,1,0,0,0,0,0,0,0,0,0,1]},"gradients/actor.mu.bias":{"_type":"histogram","values":[1,0,0,0,0,0,0,0,0,0,0,0,0,0,0,1,0,0,0,0,0,1,0,0,0,0,2,0,0,0,1,0,0,0,0,0,0,1,0,1,0,0,1,1,0,0,0,0,0,0,0,0,0,0,0,0,0,1,0,0,0,0,0,1],"bins":[-0.08493316173553467,-0.08180096745491028,-0.07866877317428589,-0.0755365788936615,-0.07240438461303711,-0.06927219778299332,-0.06614000350236893,-0.06300780922174454,-0.05987561494112015,-0.05674342066049576,-0.05361122637987137,-0.05047903582453728,-0.04734684154391289,-0.0442146472632885,-0.04108245670795441,-0.03795026242733002,-0.03481806814670563,-0.03168587386608124,-0.028553681448101997,-0.025421489030122757,-0.022289294749498367,-0.019157100468873978,-0.016024908050894737,-0.012892714701592922,-0.009760521352291107,-0.006628328002989292,-0.003496134653687477,-0.0003639413043856621,0.002768252044916153,0.005900445394217968,0.009032638743519783,0.012164832092821598,0.01529703289270401,0.0184292271733284,0.02156141959130764,0.02469361200928688,0.02782580628991127,0.03095800057053566,0.03409019112586975,0.03722238540649414,0.04035457968711853,0.04348677396774292,0.04661896824836731,0.0497511588037014,0.05288335308432579,0.05601554736495018,0.05914773792028427,0.06227993220090866,0.06541212648153305,0.06854432076215744,0.07167651504278183,0.07480870932340622,0.07794089615345001,0.0810730904340744,0.08420528471469879,0.08733747899532318,0.09046967327594757,0.09360186755657196,0.09673406183719635,0.09986625611782074,0.10299845039844513,0.10613063722848892,0.10926283150911331,0.1123950257897377,0.11552722007036209]},"gradients/critic.qf1.2.bias":{"_type":"histogram","values":[1,2,1,1,0,2,2,1,0,1,1,5,4,9,13,20,24,23,17,12,9,0,0,0,0,0,0,4,0,0,0,1,0,0,0,0,1,1,7,3,4,5,5,4,6,7,10,4,6,9,4,8,5,2,3,1,2,0,0,1,2,0,1,2],"bins":[-0.16528736054897308,-0.15919357538223267,-0.15309980511665344,-0.14700601994991302,-0.1409122347831726,-0.13481846451759338,-0.12872467935085297,-0.12263089418411255,-0.11653711646795273,-0.11044333875179291,-0.10434955358505249,-0.09825577586889267,-0.09216199815273285,-0.08606821298599243,-0.07997443526983261,-0.0738806501030922,-0.06778687238693237,-0.061693090945482254,-0.055599309504032135,-0.049505531787872314,-0.043411750346422195,-0.037317968904972076,-0.031224189326167107,-0.025130409747362137,-0.019036628305912018,-0.012942847795784473,-0.006849067285656929,-0.0007552867755293846,0.00533849373459816,0.011432274244725704,0.01752605475485325,0.02361983433365822,0.029713600873947144,0.03580738231539726,0.04190116375684738,0.0479949414730072,0.05408872291445732,0.06018250435590744,0.06627628207206726,0.07237006723880768,0.0784638449549675,0.08455762267112732,0.09065140783786774,0.09674518555402756,0.10283896327018738,0.1089327484369278,0.11502652615308762,0.12112031131982803,0.12721408903598785,0.13330787420272827,0.1394016444683075,0.1454954296350479,0.15158921480178833,0.15768298506736755,0.16377677023410797,0.1698705554008484,0.1759643256664276,0.18205811083316803,0.18815189599990845,0.19424568116664886,0.2003394514322281,0.2064332365989685,0.21252702176570892,0.21862079203128815,0.22471457719802856]},"gradients/actor.log_std.bias":{"bins":[-0.0378347747027874,-0.036557506769895554,-0.035280242562294006,-0.03400297462940216,-0.032725706696510315,-0.03144844248890877,-0.030171174556016922,-0.028893908485770226,-0.02761664241552353,-0.026339376345276833,-0.025062110275030136,-0.02378484234213829,-0.022507576271891594,-0.021230310201644897,-0.019953042268753052,-0.018675776198506355,-0.01739851012825966,-0.016121244058012962,-0.014843977056443691,-0.01356671005487442,-0.012289443984627724,-0.011012177914381027,-0.009734910912811756,-0.008457643911242485,-0.007180377840995789,-0.005903111305087805,-0.004625844769179821,-0.0033485782332718372,-0.0020713116973638535,-0.0007940451614558697,0.0004832213744521141,0.0017604879103600979,0.003037750720977783,0.004315017256885767,0.005592283792793751,0.0068695503287017345,0.008146816864609718,0.009424082934856415,0.010701349936425686,0.011978616937994957,0.013255883008241653,0.01453314907848835,0.015810415148735046,0.017087683081626892,0.01836494915187359,0.019642215222120285,0.02091948315501213,0.022196749225258827,0.023474015295505524,0.02475128136575222,0.026028547435998917,0.027305815368890762,0.02858308143913746,0.029860347509384155,0.031137615442276,0.03241487964987755,0.033692147582769394,0.03496941551566124,0.03624667972326279,0.03752394765615463,0.03880121558904648,0.040078479796648026,0.04135574772953987,0.04263301193714142,0.043910279870033264],"_type":"histogram","values":[1,0,0,0,0,0,0,1,0,2,0,0,0,0,0,0,0,1,0,0,1,0,1,0,1,0,0,0,0,0,1,0,0,0,0,0,1,0,0,0,0,0,0,0,0,0,0,0,1,0,0,0,0,0,0,0,0,0,0,0,0,0,0,1]},"train/ent_coef_loss":-15.226652,"train/actor_loss":-6.116433,"gradients/critic.qf0.4.weight":{"_type":"histogram","values":[1,0,0,1,0,0,0,4,0,1,1,0,1,1,0,0,1,0,0,1,1,1,2,3,3,4,6,5,13,6,5,11,6,16,11,12,5,5,0,5,2,0,2,1,4,2,4,1,2,9,6,5,4,6,15,7,6,5,13,7,5,8,4,6],"bins":[-1.601037859916687,-1.576021671295166,-1.551005482673645,-1.5259891748428345,-1.5009729862213135,-1.4759567975997925,-1.4509406089782715,-1.425924301147461,-1.40090811252594,-1.375891923904419,-1.350875735282898,-1.3258594274520874,-1.3008432388305664,-1.2758270502090454,-1.2508108615875244,-1.2257945537567139,-1.2007783651351929,-1.1757621765136719,-1.1507459878921509,-1.1257297992706299,-1.1007134914398193,-1.0756973028182983,-1.0506811141967773,-1.0256649255752563,-1.0006486177444458,-0.9756324291229248,-0.9506162405014038,-0.925599992275238,-0.900583803653717,-0.8755675554275513,-0.8505513668060303,-0.8255351185798645,-0.8005189299583435,-0.7755027413368225,-0.7504864931106567,-0.7254703044891357,-0.70045405626297,-0.675437867641449,-0.6504216194152832,-0.6254054307937622,-0.6003891825675964,-0.5753729939460754,-0.5503567457199097,-0.5253405570983887,-0.5003243088722229,-0.4753081202507019,-0.4502919018268585,-0.42527568340301514,-0.40025946497917175,-0.37524324655532837,-0.350227028131485,-0.3252108097076416,-0.3001945912837982,-0.27517837285995483,-0.25016215443611145,-0.22514595091342926,-0.20012973248958588,-0.1751135140657425,-0.1500972956418991,-0.12508107721805573,-0.10006486624479294,-0.07504864782094955,-0.05003243312239647,-0.025016216561198235,0]},"train/critic_loss":6.8586054,"gradients/critic.qf1.0.bias":{"_type":"histogram","values":[2,0,1,1,2,2,4,5,11,8,13,16,21,13,17,17,17,17,6,14,3,2,1,0,2,1,0,0,0,0,0,0,0,0,0,0,0,1,1,0,1,1,3,2,2,4,6,2,2,9,6,5,3,3,0,3,1,1,0,1,1,1,0,1],"bins":[-0.9065931439399719,-0.8700580596923828,-0.8335229754447937,-0.7969878911972046,-0.7604528069496155,-0.7239177227020264,-0.6873826384544373,-0.6508475542068481,-0.614312469959259,-0.5777773857116699,-0.5412423014640808,-0.5047072172164917,-0.4681721329689026,-0.4316370487213135,-0.39510196447372437,-0.35856688022613525,-0.32203179597854614,-0.28549671173095703,-0.24896162748336792,-0.2124265432357788,-0.1758914589881897,-0.13935637474060059,-0.10282129049301147,-0.06628620624542236,-0.029751121997833252,0.006783962249755859,0.04331904649734497,0.07985413074493408,0.1163892149925232,0.1529242992401123,0.18945938348770142,0.22599446773529053,0.2625296115875244,0.2990646958351135,0.33559978008270264,0.37213486433029175,0.40866994857788086,0.44520503282546997,0.4817401170730591,0.5182752013206482,0.5548102855682373,0.5913453698158264,0.6278804540634155,0.6644155383110046,0.7009506225585938,0.7374857068061829,0.774020791053772,0.8105558753013611,0.8470909595489502,0.8836260437965393,0.9201611280441284,0.9566962122917175,0.9932312965393066,1.029766321182251,1.0663014650344849,1.1028366088867188,1.139371633529663,1.1759066581726074,1.2124418020248413,1.2489769458770752,1.2855119705200195,1.3220469951629639,1.3585821390151978,1.3951172828674316,1.431652307510376]},"_runtime":96.521734347,"gradients/critic.qf1.4.bias":{"_type":"histogram","values":[1],"bins":[-0.5859375,-0.5859375]},"gradients/critic.qf0.0.bias":{"_type":"histogram","values":[1,1,4,3,2,4,5,11,13,12,15,27,14,19,14,14,10,5,8,3,2,2,2,1,1,0,0,0,0,0,0,0,0,1,0,1,0,1,0,0,2,2,1,1,1,1,3,5,3,2,1,5,3,5,9,1,1,1,4,5,1,1,0,2],"bins":[-0.5281049609184265,-0.5067006945610046,-0.485296368598938,-0.4638920724391937,-0.44248777627944946,-0.4210835099220276,-0.3996792137622833,-0.37827491760253906,-0.3568706214427948,-0.33546632528305054,-0.3140620291233063,-0.292657732963562,-0.27125346660614014,-0.24984915554523468,-0.2284448742866516,-0.20704057812690735,-0.18563628196716309,-0.16423198580741882,-0.14282768964767456,-0.12142340838909149,-0.10001911222934723,-0.07861481606960297,-0.0572105273604393,-0.035806234925985336,-0.014401942491531372,0.007002349942922592,0.028406642377376556,0.04981093481183052,0.07121522724628448,0.09261952340602875,0.11402381211519241,0.13542810082435608,0.15683245658874512,0.17823675274848938,0.19964104890823364,0.2210453301668167,0.24244962632656097,0.26385390758514404,0.2852582037448883,0.30666249990463257,0.32806679606437683,0.3494710922241211,0.37087538838386536,0.3922796845436096,0.4136839509010315,0.43508824706077576,0.45649254322052,0.4778968393802643,0.49930113554000854,0.5207054018974304,0.5421097278594971,0.563513994216919,0.5849183201789856,0.6063225865364075,0.6277269124984741,0.649131178855896,0.6705354452133179,0.6919397711753845,0.7133440375328064,0.734748363494873,0.7561526298522949,0.7775569558143616,0.7989612221717834,0.8203655481338501,0.841769814491272]},"_step":1746,"global_step":9974,"rollout/ep_len_mean":11.61,"train/ent_coef":0.07172178,"time/fps":109,"train/learning_rate":0.0003,"rollout/ep_rew_mean":-1.2257868,"gradients/actor.latent_pi.2.weight":{"values":[1,0,0,0,2,0,1,1,4,6,7,8,13,20,20,30,67,79,85,165,215,314,439,600,856,1140,1535,2094,2790,3620,4359,5234,5888,8887,5577,4832,3988,3235,2480,1981,1392,1039,766,542,332,268,189,127,101,66,38,33,13,19,12,10,4,4,2,2,0,1,1,2],"bins":[-0.06602457910776138,-0.06403864175081253,-0.062052711844444275,-0.06006677448749542,-0.05808084085583687,-0.056094907224178314,-0.05410896986722946,-0.05212303623557091,-0.050137102603912354,-0.0481511689722538,-0.046165235340595245,-0.04417929798364639,-0.04219336435198784,-0.040207430720329285,-0.03822149336338043,-0.03623555973172188,-0.034249626100063324,-0.03226369246840477,-0.030277756974101067,-0.028291821479797363,-0.02630588784813881,-0.024319954216480255,-0.022334018722176552,-0.02034808322787285,-0.018362149596214294,-0.01637621596455574,-0.014390280470252037,-0.012404345907270908,-0.01041841134428978,-0.008432476781308651,-0.006446542218327522,-0.004460607655346394,-0.002474673092365265,-0.0004887385293841362,0.0014971960335969925,0.003483130596578121,0.00546906515955925,0.007454999722540379,0.009440934285521507,0.011426868848502636,0.013412803411483765,0.015398737974464893,0.017384672537446022,0.019370608031749725,0.02135654166340828,0.023342475295066833,0.025328410789370537,0.02731434628367424,0.029300279915332794,0.03128621354699135,0.0332721471786499,0.035258084535598755,0.03724401816725731,0.03922995179891586,0.041215889155864716,0.04320182278752327,0.045187756419181824,0.04717369005084038,0.04915962368249893,0.051145561039447784,0.05313149467110634,0.05511742830276489,0.057103365659713745,0.0590892992913723,0.06107523292303085],"_type":"histogram"},"gradients/critic.qf1.2.weight":{"_type":"histogram","values":[1,1,3,5,3,7,13,27,25,45,60,77,105,140,241,316,534,891,1469,2327,3725,5771,8080,7962,4667,1353,1189,653,1447,1973,2353,2534,2649,2519,2281,2050,1721,1346,1083,870,699,533,435,354,241,193,149,105,74,66,51,33,20,13,16,12,9,5,5,1,2,0,3,1],"bins":[-0.18733930587768555,-0.18027594685554504,-0.17321258783340454,-0.16614922881126404,-0.15908586978912354,-0.15202251076698303,-0.14495915174484253,-0.13789579272270203,-0.13083243370056152,-0.12376907467842102,-0.11670571565628052,-0.10964235663414001,-0.10257899761199951,-0.09551563858985901,-0.0884522795677185,-0.081388920545578,-0.0743255615234375,-0.067262202501297,-0.060198843479156494,-0.05313548445701599,-0.04607212543487549,-0.039008766412734985,-0.03194540739059448,-0.02488204836845398,-0.017818689346313477,-0.010755330324172974,-0.0036919713020324707,0.0033713877201080322,0.010434746742248535,0.017498105764389038,0.02456146478652954,0.031624823808670044,0.03868818283081055,0.04575154185295105,0.05281490087509155,0.059878259897232056,0.06694161891937256,0.07400497794151306,0.08106833696365356,0.08813169598579407,0.09519505500793457,0.10225841403007507,0.10932177305221558,0.11638513207435608,0.12344849109649658,0.13051185011863708,0.1375752091407776,0.1446385681629181,0.1517019271850586,0.1587652862071991,0.1658286452293396,0.1728920042514801,0.1799553632736206,0.1870187222957611,0.1940820813179016,0.20114544034004211,0.20820879936218262,0.21527215838432312,0.22233551740646362,0.22939887642860413,0.23646223545074463,0.24352559447288513,0.25058895349502563,0.25765231251716614,0.26471567153930664]},"gradients/critic.qf0.2.weight":{"bins":[-0.10673446953296661,-0.1020452007651329,-0.0973559245467186,-0.09266665577888489,-0.08797737956047058,-0.08328811079263687,-0.07859884202480316,-0.07390956580638885,-0.06922029703855515,-0.06453102827072144,-0.05984175205230713,-0.05515248328447342,-0.05046321079134941,-0.0457739382982254,-0.04108466953039169,-0.036395397037267685,-0.03170612454414368,-0.02701685205101967,-0.02232758142054081,-0.01763831079006195,-0.012949038296937943,-0.008259766735136509,-0.0035704951733350754,0.0011187763884663582,0.005808047950267792,0.010497319512069225,0.015186591073870659,0.019875861704349518,0.024565134197473526,0.029254406690597534,0.033943675458431244,0.03863294795155525,0.043322235345840454,0.04801150783896446,0.05270078033208847,0.05739004909992218,0.06207932159304619,0.0667685940861702,0.0714578628540039,0.07614713907241821,0.08083640784025192,0.08552567660808563,0.09021495282649994,0.09490422159433365,0.09959349036216736,0.10428276658058167,0.10897203534841537,0.11366131156682968,0.11835058033466339,0.1230398491024971,0.1277291178703308,0.13241839408874512,0.13710767030715942,0.14179693162441254,0.14648620784282684,0.15117548406124115,0.15586474537849426,0.16055402159690857,0.16524329781532288,0.16993257403373718,0.1746218353509903,0.1793111115694046,0.1840003877878189,0.18868964910507202,0.19337892532348633],"_type":"histogram","values":[4,10,11,10,32,63,88,120,195,335,503,733,1104,1731,2383,3500,4452,5603,5976,5269,3622,1154,1591,718,1291,1551,1868,2087,2080,2115,2056,1942,1702,1535,1409,1173,1022,867,722,567,519,368,335,234,210,139,119,112,88,61,45,32,29,21,10,6,4,5,2,0,0,2,0,1]}}